svm_type c_svc
kernel_type sigmoid
gamma 0.1
coef0 0
nr_class 2
total_sv 541
rho 1.04677
label 1 -1
probA -2.10699
probB -0.663027
nr_sv 270 271
SV
10 1:0.45490196 2:0.094117649 3:0.16470589 
10 1:0.18431373 2:0.078431375 3:0.094117649 
10 1:0.17254902 2:0.15294118 3:0.11372549 
10 1:0.58431375 2:0.090196081 3:0.098039217 
10 1:0.15294118 2:0.039215688 3:0.039215688 
10 1:0.082352944 2:0.29803923 3:0.1254902 
10 1:1 2:0.27843139 3:0.086274512 
10 1:0.40392157 2:0.14509805 3:0.14901961 
10 1:0.68627453 2:0.070588239 3:0.13725491 
10 1:0.45490196 2:0.1254902 3:0.26274511 
10 1:0.47843137 2:0.14509805 3:0.082352944 
10 1:0.42352942 2:0.13725491 3:0.32156864 
10 1:0.34117648 2:0.098039217 3:0.031372551 
10 1:0.60000002 2:0.043137256 3:0.082352944 
10 1:0.3764706 2:0.18039216 3:0.30588236 
10 1:0.8509804 2:0.12156863 3:0.094117649 
10 1:0.69803923 2:0.078431375 3:0.062745102 
10 1:0.52549022 2:0.098039217 3:0.12941177 
10 1:0.70588237 2:0.20392157 3:0.047058824 
10 1:0.77254903 2:0.10980392 3:0.13333334 
10 1:0.65098041 2:0.36078432 3:0.074509807 
10 1:0.32156864 2:0.035294119 3:0.043137256 
10 1:0.39607844 2:0.25882354 3:0.17647059 
10 1:0.26274511 2:0.10980392 3:0.19215687 
10 1:0.67058825 2:0.054901961 3:0.082352944 
10 1:0.33333334 2:0.31764707 3:0.082352944 
10 1:0.34509805 2:0.054901961 3:0.098039217 
10 1:0.43921569 2:0.078431375 3:0.050980393 
10 1:0.22352941 2:0.23529412 3:0.054901961 
10 1:0.33725491 2:0.1882353 3:0.047058824 
10 1:0.28235295 2:0.054901961 3:0.1254902 
10 1:0.1254902 2:0.15294118 3:0.074509807 
10 1:0.41176471 2:0.11372549 3:0.29019609 
10 1:0.15294118 2:0.047058824 3:0.15294118 
10 1:0.68627453 2:0.14901961 3:0.18039216 
10 1:0.38431373 2:0.074509807 3:0.090196081 
10 1:0.06666667 2:0.14901961 3:0.10980392 
10 1:0.20784314 2:0.054901961 3:0.14117648 
10 1:0.05882353 2:0.043137256 3:0.050980393 
10 1:0.10196079 2:0.082352944 3:0.05882353 
10 1:0.72941178 2:0.16862746 3:0.082352944 
10 1:0.21176471 2:0.25882354 3:0.070588239 
10 1:0.074509807 2:0.074509807 3:0.035294119 
10 1:0.70980394 2:0.043137256 3:0.1254902 
10 1:0.36078432 2:0.25098041 3:0.047058824 
10 1:0.27843139 2:0.30588236 3:0.24313726 
10 1:0.24313726 2:0.18431373 3:0.094117649 
10 1:0.19215687 2:0.41176471 3:0.11372549 
10 1:0.67058825 2:0.094117649 3:0.12941177 
10 1:0.14117648 2:0.078431375 3:0.027450981 
10 1:0.11764706 2:0.14117648 3:0.06666667 
10 1:0.37254903 2:0.031372551 3:0.18431373 
10 1:0.3882353 2:0.062745102 3:0.094117649 
10 1:0.89019608 2:0.078431375 3:0.12941177 
10 1:0.2 2:0.17647059 3:0.1254902 
10 1:0.29803923 2:0.30588236 3:0.086274512 
10 1:0.72941178 2:0.16078432 3:0.10196079 
10 1:0.094117649 2:0.15686275 3:0.027450981 
10 1:0.56862748 2:0.086274512 3:0.082352944 
10 1:0.44705883 2:0.05882353 3:0.06666667 
10 1:0.10588235 2:0.14509805 3:0.023529412 
10 1:0.73333335 2:0.42352942 3:0.054901961 
10 1:0.25098041 2:0.062745102 3:0.12941177 
10 1:0.18431373 2:0.039215688 3:0.047058824 
10 1:0.12941177 2:0.10588235 3:0.086274512 
10 1:0.25490198 2:0.19607843 3:0.25098041 
10 1:0.3019608 2:0.086274512 3:0.019607844 
10 1:1 2:0.15686275 3:0.1882353 
10 1:0.35294119 2:0.12156863 3:0.043137256 
10 1:0.054901961 2:0.031372551 3:0.039215688 
10 1:0.26666668 2:0.12941177 3:0.06666667 
10 1:0.039215688 2:0.12941177 3:0.019607844 
10 1:0.05882353 2:0.043137256 3:0.050980393 
10 1:0.43137255 2:0.035294119 3:0.094117649 
10 1:0.43529412 2:0.11764706 3:0.043137256 
10 1:0.38039216 2:0.29803923 3:0.14509805 
10 1:0.72941178 2:0.12941177 3:0.34117648 
10 1:0.16470589 2:0.090196081 3:0.023529412 
10 1:0.26274511 2:0.078431375 3:0.039215688 
10 1:0.10980392 2:0.082352944 3:0.11372549 
10 1:0.79215688 2:0.090196081 3:0.082352944 
10 1:0.21568628 2:0.050980393 3:0.12156863 
10 1:0.1254902 2:0.06666667 3:0.16470589 
10 1:1 2:0.1254902 3:0.27058825 
10 1:0.54509807 2:0.023529412 3:0.10588235 
10 1:0.4627451 2:0.05882353 3:0.39607844 
10 1:0.070588239 2:0.19215687 3:0.06666667 
10 1:0.33725491 2:0.078431375 3:0.082352944 
10 1:0.53725493 2:0.06666667 3:0.082352944 
10 1:0.41176471 2:0.14509805 3:0.10196079 
10 1:0.21960784 2:0.039215688 3:0.082352944 
10 1:0.25098041 2:0.090196081 3:0.12941177 
10 1:0.30980393 2:0.17254902 3:0.24313726 
10 1:0.67450982 2:0.26274511 3:0.05882353 
10 1:0.26666668 2:0.054901961 3:0.078431375 
10 1:0.34509805 2:0.0039215689 3:0.05882353 
10 1:0.17647059 2:0.027450981 3:0.050980393 
10 1:0.28235295 2:0.094117649 3:0.086274512 
10 1:0.32941177 2:0.098039217 3:0.086274512 
10 1:0.63921571 2:0.10196079 3:0.054901961 
10 1:0.60784316 2:0.13333334 3:0.082352944 
10 1:0.32156864 2:0.19607843 3:0.15686275 
10 1:0.38431373 2:0.054901961 3:0.031372551 
10 1:0.38431373 2:0.074509807 3:0.090196081 
10 1:0.3882353 2:0.090196081 3:0.074509807 
10 1:0.23137255 2:0.094117649 3:0.14117648 
10 1:0.63137257 2:0.15294118 3:0.17254902 
10 1:0.2 2:0.15294118 3:0.10196079 
10 1:0.086274512 2:0.18431373 3:0.074509807 
10 1:0.41176471 2:0.15294118 3:0.14117648 
10 1:0.12156863 2:0.031372551 3:0.10196079 
10 1:0.68235296 2:0.1254902 3:0.090196081 
10 1:0.34901962 2:0.050980393 3:0.078431375 
10 1:0.30980393 2:0.023529412 3:0.06666667 
10 1:0.26666668 2:0.14117648 3:0.37254903 
10 1:0.23137255 2:0.074509807 3:0.14117648 
10 1:0.17647059 2:0.047058824 3:0.054901961 
10 1:0.34901962 2:0.18039216 3:0.17647059 
10 1:0.55686277 2:0.054901961 3:0.035294119 
10 1:0.44705883 2:0.16862746 3:0.15686275 
10 1:0.078431375 2:0.4509804 3:0.047058824 
10 1:0.19215687 2:0.17254902 3:0.05882353 
10 1:0.16862746 2:0.28627452 3:0.050980393 
10 1:0.13333334 2:0.46666667 3:0.023529412 
10 1:0.30588236 2:0.10980392 3:0.11764706 
10 1:0.25882354 2:0.10980392 3:0.14901961 
3.435233388053195 1:0.90980393 2:0.14509805 3:0.05882353 
10 1:0.84705883 2:0.16470589 3:0.22745098 
10 1:0.23529412 2:0.12941177 3:0.17254902 
10 1:0.47843137 2:0.035294119 3:0.10588235 
10 1:0.35686275 2:0.12156863 3:0.25882354 
10 1:0.34901962 2:0.086274512 3:0.070588239 
10 1:0.25490198 2:0.05882353 3:0.054901961 
10 1:0.72941178 2:0.12941177 3:0.15294118 
10 1:0.67450982 2:0.082352944 3:0.12156863 
10 1:0.11764706 2:0.14117648 3:0.06666667 
10 1:0.29803923 2:0.050980393 3:0.054901961 
10 1:0.32549021 2:0.043137256 3:0.047058824 
10 1:0.45490196 2:0.24313726 3:0.12156863 
10 1:0.28235295 2:0.027450981 3:0.20392157 
10 1:0.41568628 2:0.05882353 3:0.039215688 
10 1:0.16078432 2:0.16078432 3:0.14901961 
10 1:0.3764706 2:0.18039216 3:0.30588236 
10 1:0.24705882 2:0.27450982 3:0.06666667 
10 1:0.22352941 2:0.23137255 3:0.16078432 
10 1:0.11372549 2:0.098039217 3:0.10196079 
10 1:0.47450981 2:0.21176471 3:0.10980392 
10 1:0.46666667 2:0.050980393 3:0.15686275 
10 1:0.36862746 2:0.023529412 3:0.2 
10 1:0.32156864 2:0.06666667 3:0.070588239 
10 1:0.56862748 2:0.090196081 3:0.027450981 
10 1:0.16862746 2:0.18039216 3:0.035294119 
10 1:0.11764706 2:0.25882354 3:0.098039217 
10 1:0.25098041 2:0.10196079 3:0.17647059 
10 1:0.15686275 2:0.17254902 3:0.098039217 
10 1:0.13725491 2:0.078431375 3:0.11764706 
10 1:0.75294119 2:0.023529412 3:0.11372549 
10 1:0.96470588 2:0.11764706 3:0.24313726 
10 1:0.18039216 2:0.19607843 3:0.086274512 
10 1:0.38039216 2:0.011764706 3:0.12941177 
10 1:0.6156863 2:0.050980393 3:0.23137255 
10 1:0.27058825 2:0.22745098 3:0.33333334 
10 1:0.38039216 2:0.11372549 3:0.035294119 
10 1:0.20784314 2:0.47058824 3:0.1254902 
10 1:0.67843139 2:0.18039216 3:0.094117649 
10 1:0.34117648 2:0.14509805 3:0.047058824 
10 1:0.32549021 2:0.039215688 3:0.078431375 
10 1:0.38039216 2:0.25490198 3:0.098039217 
10 1:0.39215687 2:0.031372551 3:0.14509805 
10 1:0.60784316 2:0.098039217 3:0.10980392 
10 1:0.25098041 2:0.12941177 3:0.21176471 
10 1:0.28235295 2:0.18431373 3:0.031372551 
10 1:0.23529412 2:0.082352944 3:0.11764706 
10 1:0.082352944 2:0.050980393 3:0.035294119 
10 1:0.81176472 2:0.090196081 3:0.1882353 
10 1:0.4627451 2:0.035294119 3:0.078431375 
10 1:0.74117649 2:0.062745102 3:0.12156863 
10 1:0.63137257 2:0.11764706 3:0.031372551 
10 1:0.29411766 2:0.12156863 3:0.086274512 
10 1:0.68627453 2:0.10196079 3:0.05882353 
10 1:0.54509807 2:0.29411766 3:0.13333334 
10 1:0.30980393 2:0.1254902 3:0.11764706 
10 1:1 2:0.13725491 3:0.16862746 
10 1:0.12941177 2:0.25882354 3:0.070588239 
10 1:0.1882353 2:0.21960784 3:0.086274512 
10 1:0.11764706 2:0.047058824 3:0.054901961 
10 1:0.7764706 2:0.086274512 3:0.22745098 
10 1:0.27058825 2:0.10196079 3:0.070588239 
10 1:0.23921569 2:0.098039217 3:0.035294119 
10 1:0.72549021 2:0.20392157 3:0.13333334 
10 1:0.3137255 2:0.28627452 3:0.050980393 
10 1:0.89411765 2:0.035294119 3:0.11764706 
10 1:0.35686275 2:0.1882353 3:0.16078432 
10 1:0.094117649 2:0.14509805 3:0.031372551 
10 1:0.10588235 2:0.17254902 3:0.12941177 
10 1:0.1882353 2:0.05882353 3:0.15294118 
10 1:0.30588236 2:0.082352944 3:0.039215688 
10 1:0.70980394 2:0.043137256 3:0.039215688 
10 1:0.94901961 2:0.15294118 3:0.1254902 
10 1:0.51764709 2:0.035294119 3:0.054901961 
10 1:0.32941177 2:0.19215687 3:0.24705882 
10 1:0.50980395 2:0.22352941 3:0.27058825 
10 1:0.11764706 2:0.17254902 3:0.10196079 
10 1:0.64313728 2:0.050980393 3:0.031372551 
10 1:0.13333334 2:0.24705882 3:0.17254902 
10 1:0.086274512 2:0.05882353 3:0.039215688 
10 1:0.29803923 2:0.086274512 3:0.074509807 
10 1:0.43137255 2:0.18431373 3:0.10588235 
10 1:0.10196079 2:0.082352944 3:0.098039217 
10 1:0.34901962 2:0.086274512 3:0.070588239 
10 1:0.086274512 2:0.023529412 3:0.086274512 
10 1:0.23921569 2:0.14117648 3:0.15294118 
10 1:0.17254902 2:0.062745102 3:0.24313726 
10 1:0.12941177 2:0.14117648 3:0.094117649 
10 1:0.22745098 2:0.094117649 3:0.050980393 
10 1:0.14509805 2:0.1254902 3:0.10588235 
10 1:0.29019609 2:0.21960784 3:0.13725491 
10 1:0.29411766 2:0.098039217 3:0.070588239 
10 1:1 2:0.34117648 3:0.05882353 
10 1:0.41568628 2:0.074509807 3:0.15686275 
10 1:0.18039216 2:0.22745098 3:0.10980392 
10 1:0.074509807 2:0.10980392 3:0.043137256 
10 1:0.26274511 2:0.050980393 3:0.12941177 
10 1:0.44705883 2:0.16862746 3:0.15686275 
10 1:0.23921569 2:0.035294119 3:0.074509807 
10 1:0.31764707 2:0.015686275 3:0.039215688 
10 1:0.59215689 2:0.070588239 3:0.22745098 
10 1:0.15686275 2:0.20392157 3:0.050980393 
10 1:0.31764707 2:0.062745102 3:0.027450981 
10 1:1 2:0.27058825 3:0.13725491 
10 1:0.094117649 2:0.13333334 3:0.16862746 
10 1:0.54509807 2:0.27058825 3:0.043137256 
10 1:0.13725491 2:0.098039217 3:0.12156863 
10 1:0.48235294 2:0.047058824 3:0.18039216 
10 1:0.27450982 2:0.078431375 3:0.043137256 
10 1:0.12941177 2:0.12941177 3:0.050980393 
10 1:0.33333334 2:0.25882354 3:0.062745102 
10 1:0.41568628 2:0.12941177 3:0.086274512 
10 1:0.12941177 2:0.06666667 3:0.10588235 
10 1:0.41176471 2:0.027450981 3:0.05882353 
10 1:0.36078432 2:0.20392157 3:0.16862746 
10 1:0.30588236 2:0.1882353 3:0.1254902 
10 1:0.14509805 2:0.14901961 3:0.031372551 
10 1:0.63137257 2:0.11764706 3:0.031372551 
10 1:0.21960784 2:0.14117648 3:0.12156863 
10 1:0.21568628 2:0.18431373 3:0.090196081 
10 1:0.41176471 2:0.13333334 3:0.14117648 
10 1:0.14117648 2:0.050980393 3:0.12156863 
10 1:0.31764707 2:0.12156863 3:0.27843139 
10 1:0.36862746 2:0.086274512 3:0.24705882 
10 1:0.85882354 2:0.15686275 3:0.10588235 
10 1:0.32941177 2:0.18039216 3:0.18431373 
10 1:0.36078432 2:0.074509807 3:0.05882353 
10 1:0.62352943 2:0.16862746 3:0.06666667 
10 1:0.19607843 2:0.19215687 3:0.18431373 
10 1:0.36078432 2:0.12156863 3:0.039215688 
10 1:0.20392157 2:0.24705882 3:0.10196079 
10 1:0.25490198 2:0.039215688 3:0.062745102 
10 1:0.89411765 2:0.047058824 3:0.12156863 
10 1:0.7764706 2:0.047058824 3:0.070588239 
10 1:0.63137257 2:0.1254902 3:0.47843137 
10 1:0.18039216 2:0.11764706 3:0.054901961 
10 1:0.29411766 2:0.27450982 3:0.054901961 
10 1:0.52941179 2:0.10980392 3:0.25882354 
10 1:0.36470589 2:0.05882353 3:0.039215688 
10 1:0.34117648 2:0.14901961 3:0.035294119 
10 1:0.62352943 2:0.047058824 3:0.082352944 
10 1:0.28235295 2:0.10980392 3:0.086274512 
10 1:0.81960785 2:0.074509807 3:0.1882353 
10 1:0.72941178 2:0.082352944 3:0.1254902 
-10 1:0.85490197 2:0.59215689 3:0.21568628 
-10 1:0.28627452 2:0.1254902 3:0.050980393 
-10 1:0.63921571 2:0.25882354 3:0.30980393 
-10 1:0.77254903 2:0.13725491 3:0.38039216 
-10 1:0.49411765 2:0.24705882 3:0.14901961 
-10 1:0.94117647 2:0.34509805 3:0.18039216 
-10 1:0.47843137 2:0.16470589 3:0.21960784 
-10 1:0.34509805 2:0.10588235 3:0.098039217 
-10 1:0.5411765 2:0.062745102 3:0.098039217 
-10 1:0.90196079 2:0.3882353 3:0.17647059 
-10 1:0.41176471 2:0.13725491 3:0.15686275 
-10 1:0.74509805 2:0.29019609 3:0.16862746 
-10 1:0.77254903 2:0.16078432 3:0.46666667 
-10 1:0.54509807 2:0.17647059 3:0.10196079 
-10 1:1 2:0.22745098 3:0.17254902 
-10 1:1 2:0.98823529 3:0.15294118 
-10 1:0.81960785 2:0.60784316 3:0.23137255 
-10 1:0.86274511 2:0.35294119 3:0.34509805 
-10 1:0.41176471 2:0.13725491 3:0.15686275 
-10 1:0.47450981 2:0.14901961 3:0.15686275 
-10 1:0.45490196 2:0.078431375 3:0.23529412 
-10 1:0.93333334 2:0.26274511 3:0.48627451 
-10 1:1 2:0.10588235 3:0.627451 
-10 1:1 2:0.31764707 3:0.4627451 
-10 1:0.5411765 2:0.15686275 3:0.18431373 
-10 1:1 2:0.19215687 3:0.34117648 
-10 1:0.94117647 2:0.22352941 3:0.18039216 
-10 1:0.81960785 2:0.32941177 3:0.19607843 
-10 1:0.64313728 2:0.11372549 3:0.10196079 
-10 1:0.33725491 2:0.070588239 3:0.054901961 
-10 1:1 2:0.52549022 3:0.35294119 
-10 1:0.96470588 2:0.29803923 3:0.57254905 
-10 1:0.54901963 2:0.25882354 3:0.26274511 
-10 1:0.52941179 2:0.29411766 3:0.17647059 
-10 1:0.49019608 2:0.24313726 3:0.16862746 
-10 1:0.64313728 2:0.11372549 3:0.10196079 
-10 1:0.45882353 2:0.24705882 3:0.15686275 
-10 1:0.9254902 2:0.40392157 3:0.14901961 
-10 1:0.89411765 2:0.054901961 3:0.22352941 
-10 1:0.52941179 2:0.15294118 3:0.17647059 
-10 1:0.35294119 2:0.1882353 3:0.11372549 
-10 1:0.68235296 2:0.27450982 3:0.23921569 
-10 1:0.87058824 2:0.72941178 3:0.094117649 
-10 1:0.52941179 2:0.23529412 3:0.27450982 
-10 1:0.42352942 2:0.10980392 3:0.18431373 
-10 1:0.73725492 2:0.22352941 3:0.29019609 
-10 1:0.52549022 2:0.45490196 3:0.047058824 
-10 1:0.52941179 2:0.29411766 3:0.17647059 
-10 1:1 2:1 3:0.21176471 
-10 1:0.56470591 2:0.25490198 3:0.2 
-10 1:1 2:0.33725491 3:0.42352942 
-10 1:0.86274511 2:0.35294119 3:0.34509805 
-10 1:0.82745099 2:0.72941178 3:0.12156863 
-10 1:0.60392159 2:0.32549021 3:0.28235295 
-10 1:0.38431373 2:0.16078432 3:0.13725491 
-10 1:0.72156864 2:0.63529414 3:0.10980392 
-10 1:0.56470591 2:0.26274511 3:0.22745098 
-10 1:0.4627451 2:0.37254903 3:0.11764706 
-10 1:0.80000001 2:0.13725491 3:0.27843139 
-10 1:0.27058825 2:0.19215687 3:0.06666667 
-10 1:0.78039217 2:0.41568628 3:0.36470589 
-10 1:1 2:0.49411765 3:0.47450981 
-10 1:0.4627451 2:0.15686275 3:0.25490198 
-10 1:0.38039216 2:0.13725491 3:0.05882353 
-10 1:0.40000001 2:0.39607844 3:0.050980393 
-10 1:0.50196081 2:0.14117648 3:0.24705882 
-10 1:0.53725493 2:0.16470589 3:0.20784314 
-10 1:0.54901963 2:0.36078432 3:0.14117648 
-10 1:0.48627451 2:0.18039216 3:0.11764706 
-10 1:1 2:0.43921569 3:0.3137255 
-10 1:0.33333334 2:0.26666668 3:0.074509807 
-10 1:0.7647059 2:0.56862748 3:0.25098041 
-10 1:0.56862748 2:0.51372552 3:0.035294119 
-1.632192308411521 1:0.66274512 2:0.56862748 3:0.19607843 
-10 1:0.75294119 2:0.21176471 3:0.3882353 
-10 1:1 2:0.20392157 3:0.71372551 
-10 1:0.78039217 2:0.32156864 3:0.06666667 
-10 1:0.48235294 2:0.28627452 3:0.1254902 
-10 1:0.67843139 2:0.58431375 3:0.1882353 
-10 1:0.68235296 2:0.19607843 3:0.15686275 
-10 1:0.53333336 2:0.16862746 3:0.18039216 
-10 1:0.22745098 2:0.12156863 3:0.090196081 
-10 1:0.72549021 2:0.10196079 3:0.3882353 
-10 1:0.60784316 2:0.11764706 3:0.062745102 
-10 1:0.11372549 2:0.062745102 3:0.015686275 
-10 1:0.24705882 2:0.10196079 3:0.082352944 
-10 1:0.20784314 2:0.015686275 3:0.13725491 
-10 1:0.16862746 2:0.12941177 3:0.043137256 
-10 1:0.30980393 2:0.039215688 3:0.082352944 
-10 1:0.32941177 2:0.054901961 3:0.19215687 
-10 1:1 2:0.10980392 3:0.43921569 
-10 1:0.59215689 2:0.035294119 3:0.25098041 
-10 1:0.45882353 2:0.06666667 3:0.2 
-10 1:0.53333336 2:0.050980393 3:0.1254902 
-10 1:0.27058825 2:0.031372551 3:0.054901961 
-10 1:0.34509805 2:0.078431375 3:0.13333334 
-10 1:0.2 2:0.05882353 3:0.043137256 
-10 1:0.19607843 2:0.074509807 3:0.10196079 
-10 1:0.3137255 2:0.22745098 3:0.078431375 
-10 1:0.19607843 2:0.015686275 3:0.11372549 
-10 1:0.36078432 2:0.035294119 3:0.1254902 
-10 1:0.32941177 2:0.015686275 3:0.1254902 
-10 1:0.33725491 2:0.14901961 3:0.11764706 
-10 1:0.51764709 2:0.12156863 3:0.2 
-10 1:0.44705883 2:0.011764706 3:0.3019608 
-10 1:0.43137255 2:0.047058824 3:0.043137256 
-10 1:0.19607843 2:0.11764706 3:0.05882353 
-10 1:0.34901962 2:0.086274512 3:0.13725491 
-10 1:0.44313726 2:0.14509805 3:0.23137255 
-10 1:0.49803922 2:0.082352944 3:0.14509805 
-10 1:0.27058825 2:0.027450981 3:0.19215687 
-10 1:0.3764706 2:0.047058824 3:0.12941177 
-10 1:0.1882353 2:0.043137256 3:0.074509807 
-10 1:0.64313728 2:0.23921569 3:0.30588236 
-10 1:0.54509807 2:0.082352944 3:0.086274512 
-10 1:0.36862746 2:0.050980393 3:0.13725491 
-10 1:0.26274511 2:0.12156863 3:0.098039217 
-10 1:0.25490198 2:0.098039217 3:0.050980393 
-10 1:0.57254905 2:0.27450982 3:0.13725491 
-10 1:0.30980393 2:0.12941177 3:0.1254902 
-10 1:0.24313726 2:0.1254902 3:0.06666667 
-10 1:0.54901963 2:0.17254902 3:0.19215687 
-10 1:1 2:0.27450982 3:0.34901962 
-10 1:0.4627451 2:0.086274512 3:0.23137255 
-10 1:0.23921569 2:0.090196081 3:0.10196079 
-10 1:0.35294119 2:0.13333334 3:0.047058824 
-10 1:0.60000002 2:0.06666667 3:0.23921569 
-10 1:0.51764709 2:0.047058824 3:0.1254902 
-10 1:0.59607846 2:0.2 3:0.24705882 
-10 1:0.39607844 2:0.23529412 3:0.06666667 
-10 1:0.83137256 2:0.55686277 3:0.29019609 
-10 1:0.19607843 2:0.023529412 3:0.031372551 
-10 1:0.24313726 2:0.082352944 3:0.039215688 
-10 1:0.26666668 2:0.11764706 3:0.094117649 
-10 1:0.39607844 2:0.027450981 3:0.26666668 
-10 1:0.22352941 2:0.050980393 3:0.11764706 
-10 1:0.32549021 2:0.062745102 3:0.19607843 
-10 1:0.72549021 2:0.094117649 3:0.17647059 
-10 1:0.40784314 2:0.078431375 3:0.14509805 
-10 1:0.57647061 2:0.36470589 3:0.23921569 
-10 1:0.3019608 2:0.14117648 3:0.054901961 
-10 1:0.14901961 2:0.050980393 3:0.06666667 
-10 1:0.28627452 2:0.14901961 3:0.082352944 
-10 1:0.17647059 2:0.082352944 3:0.054901961 
-10 1:0.10980392 2:0.094117649 3:0.011764706 
-10 1:0.27843139 2:0.070588239 3:0.043137256 
-10 1:0.35294119 2:0.13333334 3:0.047058824 
-10 1:0.15294118 2:0.082352944 3:0.031372551 
-10 1:0.17647059 2:0.05882353 3:0.023529412 
-10 1:0.37254903 2:0.10588235 3:0.22352941 
-10 1:0.30980393 2:0.11372549 3:0.094117649 
-10 1:0.14509805 2:0.019607844 3:0.090196081 
-10 1:0.24313726 2:0.050980393 3:0.090196081 
-10 1:0.53333336 2:0.050980393 3:0.32941177 
-10 1:0.57254905 2:0.043137256 3:0.27843139 
-10 1:0.22745098 2:0.054901961 3:0.13333334 
-10 1:0.19607843 2:0.015686275 3:0.11372549 
-10 1:0.25882354 2:0.043137256 3:0.12941177 
-10 1:0.27058825 2:0.035294119 3:0.078431375 
-10 1:0.23529412 2:0.023529412 3:0.10980392 
-10 1:0.40784314 2:0.062745102 3:0.070588239 
-10 1:0.24705882 2:0.13725491 3:0.070588239 
-10 1:0.24313726 2:0.05882353 3:0.035294119 
-10 1:0.23137255 2:0.043137256 3:0.14117648 
-10 1:0.28627452 2:0.10196079 3:0.078431375 
-10 1:0.62352943 2:0.33725491 3:0.20392157 
-9.947264584759147 1:0.28235295 2:0.16078432 3:0.12156863 
-10 1:0.086274512 2:0.035294119 3:0.0078431377 
-10 1:0.10980392 2:0.011764706 3:0.0078431377 
-10 1:0.16078432 2:0.015686275 3:0.043137256 
-10 1:0.1254902 2:0.015686275 3:0.043137256 
-10 1:0.082352944 2:0.023529412 3:0.015686275 
-10 1:0.05882353 2:0.011764706 3:0.0039215689 
-10 1:0.05882353 2:0.011764706 3:0.0078431377 
-10 1:0.21176471 2:0.027450981 3:0.10588235 
-1.855776494882525 1:0.070588239 2:0.027450981 3:0.027450981 
-10 1:0.070588239 2:0.019607844 3:0.015686275 
-10 1:0.039215688 2:0.015686275 3:0.0078431377 
-10 1:0.070588239 2:0.015686275 3:0.023529412 
-10 1:0.12941177 2:0.015686275 3:0.027450981 
-10 1:0.094117649 2:0.027450981 3:0.019607844 
-10 1:0.070588239 2:0.015686275 3:0.023529412 
-10 1:0.082352944 2:0.011764706 3:0.019607844 
-10 1:0.094117649 2:0.0039215689 3:0.019607844 
-10 1:0.078431375 2:0.019607844 3:0.011764706 
-10 1:0.11764706 2:0.031372551 3:0.05882353 
-10 1:0.070588239 2:0.023529412 3:0.0078431377 
-10 1:0.074509807 2:0.023529412 3:0.015686275 
-10 1:0.070588239 2:0.027450981 3:0.023529412 
-10 1:0.047058824 2:0.011764706 3:0.0039215689 
-10 1:0.11764706 2:0.039215688 3:0.050980393 
-10 1:0.070588239 2:0.0078431377 3:0.015686275 
-10 1:0.086274512 2:0.035294119 3:0.015686275 
-10 1:0.070588239 2:0.015686275 3:0.0039215689 
-10 1:0.047058824 2:0.0078431377 3:0.015686275 
-10 1:0.050980393 2:0.015686275 3:0 
-10 1:0.094117649 2:0.0078431377 3:0.050980393 
-10 1:0.1254902 2:0.054901961 3:0.015686275 
-10 1:0.054901961 2:0.011764706 3:0.011764706 
-10 1:0.10588235 2:0.015686275 3:0.015686275 
-10 1:0.078431375 2:0.0039215689 3:0.039215688 
-10 1:0.12941177 2:0.0078431377 3:0.039215688 
-10 1:0.054901961 2:0.0039215689 3:0.015686275 
-10 1:0.1882353 2:0.015686275 3:0.06666667 
-10 1:0.086274512 2:0.0039215689 3:0.019607844 
-10 1:0.094117649 2:0.011764706 3:0.027450981 
-10 1:0.043137256 2:0.019607844 3:0.0078431377 
-10 1:0.050980393 2:0.0078431377 3:0.015686275 
-10 1:0.090196081 2:0.011764706 3:0.027450981 
-10 1:0.039215688 2:0.015686275 3:0.0078431377 
-10 1:0.12156863 2:0.043137256 3:0.047058824 
-10 1:0.05882353 2:0.011764706 3:0.0039215689 
-10 1:0.070588239 2:0.023529412 3:0.0078431377 
-10 1:0.082352944 2:0.015686275 3:0.019607844 
-10 1:0.21176471 2:0.027450981 3:0.10588235 
-10 1:0.06666667 2:0.023529412 3:0.0078431377 
-10 1:0.043137256 2:0.0078431377 3:0.011764706 
-10 1:0.13333334 2:0.027450981 3:0.0078431377 
-10 1:0.10196079 2:0.0078431377 3:0.035294119 
-10 1:0.031372551 2:0.0039215689 3:0.0039215689 
-10 1:0.090196081 2:0.027450981 3:0.015686275 
-10 1:0.10196079 2:0.019607844 3:0.035294119 
-10 1:0.1882353 2:0.019607844 3:0.10980392 
-10 1:0.094117649 2:0.039215688 3:0.031372551 
-10 1:0.15294118 2:0.027450981 3:0.070588239 
-10 1:0.094117649 2:0.011764706 3:0.023529412 
-10 1:0.10196079 2:0 3:0.05882353 
-10 1:0.050980393 2:0.015686275 3:0.0078431377 
-10 1:0.062745102 2:0.015686275 3:0.027450981 
-10 1:0.090196081 2:0.015686275 3:0.031372551 
-10 1:0.06666667 2:0.0078431377 3:0.031372551 
-10 1:0.14117648 2:0.023529412 3:0.031372551 
-10 1:0.094117649 2:0.011764706 3:0.023529412 
-10 1:0.06666667 2:0.0078431377 3:0.023529412 
-10 1:0.11372549 2:0.023529412 3:0.015686275 
-10 1:0.10196079 2:0.023529412 3:0.0039215689 
-10 1:0.098039217 2:0.035294119 3:0.035294119 
-10 1:0.050980393 2:0.0039215689 3:0.023529412 
-10 1:0.047058824 2:0.0078431377 3:0.015686275 
-10 1:0.043137256 2:0.011764706 3:0.011764706 
-10 1:0.06666667 2:0.011764706 3:0.0039215689 
-10 1:0.062745102 2:0.015686275 3:0.015686275 
-10 1:0.10196079 2:0.031372551 3:0.043137256 
-10 1:0.14117648 2:0.019607844 3:0.043137256 
-10 1:0.22352941 2:0.054901961 3:0.054901961 
-10 1:0.13333334 2:0.0078431377 3:0.027450981 
-10 1:0.086274512 2:0.011764706 3:0.035294119 
-10 1:0.42745098 2:0.10196079 3:0.16862746 
-10 1:0.40392157 2:0.24313726 3:0.039215688 
-10 1:0.18039216 2:0.05882353 3:0.090196081 
-10 1:0.28627452 2:0.12941177 3:0.1254902 
-10 1:0.28235295 2:0.23921569 3:0.031372551 
-10 1:0.30980393 2:0.15294118 3:0.082352944 
-10 1:0.49803922 2:0.094117649 3:0.24705882 
-10 1:0.21176471 2:0.039215688 3:0.05882353 
-10 1:0.15294118 2:0.086274512 3:0.054901961 
-10 1:0.43921569 2:0.16862746 3:0.14117648 
-10 1:0.45490196 2:0.094117649 3:0.22745098 
-10 1:0.23529412 2:0.16078432 3:0.070588239 
-10 1:0.26274511 2:0.17647059 3:0.0078431377 
-10 1:0.15686275 2:0.05882353 3:0.078431375 
-10 1:0.17254902 2:0.13725491 3:0.039215688 
-10 1:0.36862746 2:0.1882353 3:0.098039217 
-10 1:0.47450981 2:0.16078432 3:0.15686275 
-10 1:0.18039216 2:0.14117648 3:0.039215688 
-10 1:0.21960784 2:0.13333334 3:0.078431375 
-10 1:0.098039217 2:0.019607844 3:0.0078431377 
-10 1:0.25098041 2:0.22352941 3:0.027450981 
-10 1:0.2 2:0.043137256 3:0.094117649 
-10 1:0.35686275 2:0.13333334 3:0.2 
-10 1:0.25098041 2:0.13725491 3:0.047058824 
